digraph Tree {
node [shape=box] ;
0 [label="Shoe_size <= 41.0\ngini = 0.4959\nsamples = 11\nvalue = [5, 6]\nclass = Weight"] ;
1 [label="Weight <= 64.5\ngini = 0.2778\nsamples = 6\nvalue = [5, 1]\nclass = Height"] ;
0 -> 1 [labeldistance=2.5, labelangle=45, headlabel="True"] ;
2 [label="gini = 0.0\nsamples = 4\nvalue = [4, 0]\nclass = Height"] ;
1 -> 2 ;
3 [label="Weight <= 67.5\ngini = 0.5\nsamples = 2\nvalue = [1, 1]\nclass = Height"] ;
1 -> 3 ;
4 [label="gini = 0.0\nsamples = 1\nvalue = [0, 1]\nclass = Weight"] ;
3 -> 4 ;
5 [label="gini = 0.0\nsamples = 1\nvalue = [1, 0]\nclass = Height"] ;
3 -> 5 ;
6 [label="gini = 0.0\nsamples = 5\nvalue = [0, 5]\nclass = Weight"] ;
0 -> 6 [labeldistance=2.5, labelangle=-45, headlabel="False"] ;
}